digraph Tree {
node [shape=box, style="filled", color="black"] ;
0 [label="color_intensity <= 3.46\ngini = 0.657\nsamples = 142\nvalue = [51, 55, 36]\nclass = class_1", fillcolor="#f6fef9"] ;
1 [label="gini = 0.0\nsamples = 42\nvalue = [0, 42, 0]\nclass = class_1", fillcolor="#39e581"] ;
0 -> 1 [labeldistance=2.5, labelangle=45, headlabel="True"] ;
2 [label="total_phenols <= 2.335\ngini = 0.593\nsamples = 100\nvalue = [51, 13, 36]\nclass = class_0", fillcolor="#f9e1d1"] ;
0 -> 2 [labeldistance=2.5, labelangle=-45, headlabel="False"] ;
3 [label="proline <= 517.5\ngini = 0.278\nsamples = 42\nvalue = [0, 7, 35]\nclass = class_2", fillcolor="#9a61ea"] ;
2 -> 3 ;
4 [label="hue <= 0.725\ngini = 0.48\nsamples = 10\nvalue = [0, 6, 4]\nclass = class_1", fillcolor="#bdf6d5"] ;
3 -> 4 ;
5 [label="gini = 0.0\nsamples = 4\nvalue = [0, 0, 4]\nclass = class_2", fillcolor="#8139e5"] ;
4 -> 5 ;
6 [label="gini = 0.0\nsamples = 6\nvalue = [0, 6, 0]\nclass = class_1", fillcolor="#39e581"] ;
4 -> 6 ;
7 [label="flavanoids <= 1.59\ngini = 0.061\nsamples = 32\nvalue = [0, 1, 31]\nclass = class_2", fillcolor="#853fe6"] ;
3 -> 7 ;
8 [label="gini = 0.0\nsamples = 31\nvalue = [0, 0, 31]\nclass = class_2", fillcolor="#8139e5"] ;
7 -> 8 ;
9 [label="gini = 0.0\nsamples = 1\nvalue = [0, 1, 0]\nclass = class_1", fillcolor="#39e581"] ;
7 -> 9 ;
10 [label="magnesium <= 88.5\ngini = 0.216\nsamples = 58\nvalue = [51, 6, 1]\nclass = class_0", fillcolor="#e89254"] ;
2 -> 10 ;
11 [label="gini = 0.0\nsamples = 4\nvalue = [0, 4, 0]\nclass = class_1", fillcolor="#39e581"] ;
10 -> 11 ;
12 [label="malic_acid <= 1.32\ngini = 0.106\nsamples = 54\nvalue = [51, 2, 1]\nclass = class_0", fillcolor="#e68844"] ;
10 -> 12 ;
13 [label="gini = 0.0\nsamples = 1\nvalue = [0, 1, 0]\nclass = class_1", fillcolor="#39e581"] ;
12 -> 13 ;
14 [label="od280/od315_of_diluted_wines <= 2.265\ngini = 0.073\nsamples = 53\nvalue = [51, 1, 1]\nclass = class_0", fillcolor="#e68641"] ;
12 -> 14 ;
15 [label="gini = 0.0\nsamples = 1\nvalue = [0, 0, 1]\nclass = class_2", fillcolor="#8139e5"] ;
14 -> 15 ;
16 [label="magnesium <= 118.5\ngini = 0.038\nsamples = 52\nvalue = [51, 1, 0]\nclass = class_0", fillcolor="#e6833d"] ;
14 -> 16 ;
17 [label="gini = 0.0\nsamples = 46\nvalue = [46, 0, 0]\nclass = class_0", fillcolor="#e58139"] ;
16 -> 17 ;
18 [label="total_phenols <= 3.09\ngini = 0.278\nsamples = 6\nvalue = [5, 1, 0]\nclass = class_0", fillcolor="#ea9a61"] ;
16 -> 18 ;
19 [label="gini = 0.0\nsamples = 5\nvalue = [5, 0, 0]\nclass = class_0", fillcolor="#e58139"] ;
18 -> 19 ;
20 [label="gini = 0.0\nsamples = 1\nvalue = [0, 1, 0]\nclass = class_1", fillcolor="#39e581"] ;
18 -> 20 ;
}
